-109
-28
-8
10
8
-52
-5
-3
-6
1
-13
23
1
-2
9
-17
20
3
5
29
-4
14
31
0
-5
-2
-5
-9
10
1
-5
-8
12
20
1
2
-11
11
5
-32
-10
-13
10
5
7
-54
8
-27
-4
-10
1
2
16
-21
2
19
-3
16
12
5
-44
4
13
-1
4
0
0
-3
-9
-11
-13
-11
6
1
-3
-4
19
2
1
-38
1
-4
13
-4
13
-15
5
-1
-24
19
12
-3
-1
6
-6
-3
17
-1
-35
12
-7
17
9
34
-2
19
3
2
3
-6
1
-1
-7
-1
-1
-1
-10
-5
-19
26
-8
-9
38
-12
-9
-14
20
0
-35
127
24
-4
3
113
5
-7
-5
1
36
-71
20
-21
-10
15
-21
-15
-16
35
18
-4
-27
-12
5
-57
25
-67
-6
21
4
-2
-15
-15
-9
4
97
101
-8
52
-13
18
1
15
17
43
-18
53
-13
-11
-5
16
33
-18
-3
-22
-9
-39
-32
-19
16
1
41
20
-3
-1
3
17
-5
-20
15
-8
8
-11
-53
19
9
3
41
-60
-10
28
-55
-2
-48
21
-6
18
-30
-96
10
6
3
-7
28
17
-16
-17
-25
-28
6
-79
0
-51
5
-13
3
-1
17
-9
-24
23
34
-13
-16
23
-20
3
10
5
7
-5
-4
29
98
-22
-61
-31
16
25
-1
4
-1
4
0
0
-5
-4
11
0
3
2
1
-4
-4
-2
6
-5
7
-8
15
6
2
-21
-3
-14
3
-6
-2
6
3
-4
-21
2
10
-10
5
7
-2
-4
2
-3
-7
-22
-6
-9
8
4
0
8
-2
5
-2
-7
2
22
4
4
9
-1
3
-2
-5
3
1
0
8
3
1
2
-3
5
-8
-5
-7
0
6
9
-3
2
16
5
17
-5
10
-9
-5
0
-3
2
0
-1
2
-3
2
2
-14
-11
2
-2
4
-5
4
-13
0
-4
1
8
11
12
26
1
5
-2
-18
-3
5
11
-8
0
-2
7
15
14
1
1
-48
-8
12
-4
-6
0
-2
1
6
8
-9
17
7
-7
6
9
-1
-6
-4
-6
20
-1
-38
-16
15
15
5
6
-2
13
-8
-7
-8
2
11
1
-8
32
-10
3
-21
0
0
13
3
43
10
14
-10
-23
-5
15
20
-23
-2
18
2
-7
-8
-2
-25
-8
-2
5
10
5
11
6
-6
-18
15
-10
7
-6
-9
12
24
10
-10
-12
2
5
-36
0
-26
14
-4
2
-36
-18
-6
-11
3
-1
13
4
-5
-7
-24
-11
-2
2
11
2
-2
3
2
12
-2
7
-9
-9
-25
-11
-28
8
43
-8
-2
-15
2
5
10
-2
20
-11
-22
-7
-27
-16
1
-4
-2
-21
2
2
7
-4
-2
22
3
2
1
19
-2
-2
-7
-17
1
-4
-16
-4
-4
38
0
30
-4
-8
1
7
-6
-5
-2
6
-41
17
3
8
5
5
-3
2
4
-20
0
2
13
-13
-1
11
-9
4
-1
-9
7
-8
-9
2
6
0
-30
-7
-1
4
-1
-1
7
8
10
6
-2
5
24
0
-4
-8
-10
18
-6
-7
11
-5
1
2
-5
-4
2
9
1
-8
-6
4
9
-1
6
-11
21
-9
6
22
8
-1
1
-5
4
-8
-11
-3
1
-9
-3
3
-11
4
14
-2
-6
-17
9
2
-18
-5
-9
8
-4
-2
18
26
-2
1
3
3
-4
2
-2
-5
7
5
1
-4
1
-4
0
2
1
-3
12
-10
13
5
1
-27
-6
-6
2
-3
-2
9
5
-3
-21
-3
2
-16
1
0
-9
-3
4
2
-1
-38
-2
-16
2
2
-2
-3
2
2
-3
-5
0
27
2
1
-6
2
8
-1
3
-1
-4
4
7
0
-3
5
-6
0
-12
-1
-3
3
2
17
-1
0
19
3
21
-5
11
-7
-10
12
-1
-5
-5
1
0
2
-1
-2
-20
-11
-1
-6
2
6
-1
-16
-1
-6
1
5
10
12
23
2
7
-3
-22
2
0
15
-7
0
9
1
24
16
2
-1
-40
1
-3
5
2
-23
14
5
-6
-9
5
12
-7
8
-6
-17
-2
9
2
9
-25
6
29
4
-1
40
4
12
-5
-5
1
-21
6
-3
12
-8
-49
3
-3
-7
24
4
2
2
-5
-39
-3
-4
-11
15
-4
-14
-18
23
11
3
-2
1
-3
-1
29
4
-50
0
-6
-11
5
-9
-6
5
-2
3
0
8
31
5
-8
1
-4
-5
6
4
20
9
22
9
0
-6
35
22
6
9
-3
8
-9
5
-5
3
12
44
-6
38
-2
-6
0
4
0
-3
-2
-3
6
-14
-15
-5
-2
2
2
7
-1
-9
4
-10
1
7
7
2
35
6
-1
23
14
-8
-7
-4
7
-27
7
5
6
-29
10
-12
-11
-34
-5
-13
-1
-8
13
-4
50
4
-8
27
-8
20
24
-10
7
29
-7
-13
11
18
-30
-12
1
-10
17
-6
-1
-11
8
-42
6
10
-2
40
0
1
10
18
-15
15
5
2
15
10
8
-4
3
-1
-6
6
-9
6
33
1
-4
1
-3
-5
-26
-3
4
-18
6
17
-22
-8
-8
-7
38
-3
25
12
38
20
-8
15
1
-14
16
-2
7
-10
29
10
5
-10
3
-8
-12
14
6
-6
11
8
24
12
21
6
-2
-11
-24
-9
-1
-22
-3
-3
-14
-8
27
10
12
-5
2
21
-5
17
10
18
26
-2
15
15
13
6
2
-14
-29
9
-7
11
-8
-27
1
-1
-22
-19
-19
54
-15
15
2
-4
11
-9
-4
-25
9
-1
-33
34
-13
41
20
25
-2
2
20
28
5
34
-16
-3
7
34
1
18
-4
8
-3
-7
3
-1
48
11
-41
-2
-17
2
-16
4
21
-18
-11
-5
-20
4
7
18
-6
15
-7
6
-6
-5
-30
-2
-7
-1
21
15
11
-42
13
12
-20
1
8
13
-6
-7
13
-4
-26
12
-8
-53
-11
-4
0
-10
-4
-7
15
-11
-3
-11
-31
-9
44
26
-3
-47
21
13
-46
-17
22
12
-18
-7
-62
-16
-7
8
2
-41
7
2
-5
13
-9
41
-2
-1
2
-20
3
11
0
2
6
0
23
0
4
58
-13
50
-3
-6
-6
-4
-2
-12
7
-2
-94
-10
-6
-16
7
-1
6
-4
3
-53
7
-8
4
-2
1
-6
1
14
0
14
5
14
2
3
-16
-4
-53
0
-1
4
-4
2
2
-11
-4
7
-8
0
20
2
7
14
-21
13
6
1
14
-4
34
-9
19
-2
14
44
0
-9
-9
-3
0
5
1
-1
-4
21
-12
44
3
16
-1
5
-10
3
-5
8
6
-4
-11
0
-35
-4
15
0
-2
-28
-7
9
17
-4
21
14
16
3
