-2
-1
0
0
-3
2
1
7
1
-1
-5
0
0
1
-1
0
8
1
-21
1
-3
-3
21
-24
-7
8
-2
-6
-2
11
-51
21
2
32
-3
6
-3
4
-13
-2
1
-2
1
2
12
27
25
0
6
3
4
42
1
-36
0
1
3
-14
4
2
-10
3
28
4
-5
6
5
2
-23
1
-1
7
-8
4
24
0
4
-3
7
0
0
39
-1
-25
-9
-13
3
0
5
2
-2
0
3
47
2
0
19
0
3
-4
-2
-1
14
3
4
-17
-2
0
2
3
-3
3
7
1
6
30
-7
5
-6
-10
2
5
-4
1
0
0
18
-8
-2
7
21
-4
3
-13
0
1
-3
-9
-10
3
8
-1
1
11
4
-5
2
19
-8
26
1
1
2
-3
3
20
0
4
2
-1
37
-30
-1
-1
4
-25
-9
-11
23
0
3
4
-8
16
-4
10
2
16
0
48
1
8
1
-6
0
1
-20
-4
3
27
3
7
1
4
15
-1
0
13
3
-6
3
2
5
-1
-3
-7
12
0
2
1
2
0
-1
-19
0
-18
2
1
-2
-14
0
4
19
1
-2
1
35
-6
0
0
2
-8
-4
3
2
34
-25
-16
-1
0
2
-5
-3
-25
2
35
8
-5
-4
1
-1
-9
-3
-3
0
5
-1
7
3
-7
0
-4
-1
-8
5
1
7
8
0
3
4
-2
-17
7
-19
0
-3
48
-34
-30
6
-54
3
0
9
-38
-27
18
-2
1
1
-1
7
-1
-1
6
-11
9
0
-3
23
49
-42
4
-9
-93
38
-80
7
-22
0
1
53
34
-10
2
2
-2
-69
-7
4
-30
-4
-4
-46
2
-11
23
-11
-1
-107
-11
-7
-3
29
1
0
-42
3
-26
22
30
0
-1
-8
-1
2
-1
2
18
6
-5
57
-5
-105
8
2
-5
10
-1
13
24
-3
27
-9
-8
3
-3
14
4
-10
24
-14
14
23
-14
7
-7
5
1
5
1
18
12
4
16
-13
-42
4
17
1
1
-1
33
25
-2
-34
0
7
-18
-18
5
-7
-88
9
-45
2
0
15
5
6
-8
1
-6
3
0
61
27
3
1
2
16
79
21
-41
3
-5
-3
9
25
-1
28
-2
-50
-1
-52
3
38
33
7
3
-3
42
36
29
20
-5
7
-1
1
11
7
-4
-42
3
19
-1
-24
4
9
5
63
-74
8
0
-8
1
0
0
28
-40
42
-4
9
1
-32
4
-9
-12
1
-2
-2
-29
10
-3
10
6
14
8
-7
5
-56
61
11
5
-1
-28
23
-6
62
-1
-21
-4
9
-1
0
3
14
3
2
-5
0
1
-2
0
3
2
2
-1
1
1
2
-3
1
-3
0
0
1
12
1
0
3
1
9
8
0
1
5
0
4
0
5
-7
-7
-3
5
1
1
-2
0
-1
1
15
-1
2
2
-5
8
-15
-2
0
-6
-10
-6
-1
18
1
1
10
2
1
-1
-10
2
-1
1
2
-4
0
0
5
-4
-1
0
4
1
-10
-8
-2
2
3
1
2
-17
-2
3
-23
-5
-1
3
2
-2
-1
0
-2
13
1
-2
-7
-1
18
1
-2
1
14
-3
-5
0
1
-1
0
-1
2
1
-6
-1
-1
-9
8
-4
-2
4
-2
2
1
0
-2
-3
7
6
1
-5
-7
-3
-2
2
2
2
-2
2
11
0
1
-2
0
0
-2
0
-3
-18
4
1
1
2
-1
-2
1
-2
0
-3
1
-1
2
2
-2
-3
-1
-8
-3
8
-9
0
0
-4
-1
18
2
-8
-2
-17
3
-1
1
29
3
-5
2
1
23
1
-2
6
-2
0
-1
0
2
0
-3
-6
0
7
0
6
0
-1
-2
1
4
2
0
0
-2
3
0
-2
-5
11
3
1
-1
-5
1
1
-2
1
1
3
-8
2
2
-1
0
-8
-1
-1
-1
-15
-12
-7
-1
1
16
-9
2
5
-1
-5
-1
-2
1
1
-2
12
-1
1
-3
0
-4
1
1
-2
0
0
-2
3
0
-2
1
2
0
-1
-1
0
-20
2
-7
-1
-2
10
-25
-36
-4
9
1
-5
0
-13
-11
12
3
-10
-3
1
2
1
-7
3
-20
5
-3
0
7
8
32
3
1
-23
20
2
6
-28
0
1
-24
-1
-1
4
-1
2
-1
2
-4
-1
0
2
-14
-1
-1
17
-23
-12
-2
9
2
-4
0
-2
0
13
3
-28
11
18
3
-2
-3
-2
1
2
3
-2
2
0
27
1
-44
-2
-2
-3
-25
3
10
14
1
9
2
-3
-1
-1
13
2
3
26
-10
10
8
0
-1
1
-1
-1
0
0
5
-3
-4
4
-3
6
2
1
-3
-1
1
2
-10
-1
1
3
5
3
5
-6
0
5
-4
-10
-1
1
-3
3
4
3
1
1
1
-4
-4
3
1
-1
4
-3
23
-10
1
-1
-2
-2
-2
-8
-7
41
1
24
-2
-1
0
-30
-2
3
-2
1
-5
29
8
11
1
1
0
2
4
-2
2
-1
3
-2
2
-7
5
0
0
12
-13
-1
0
-1
-1
-3
1
6
2
-4
-3
5
1
-23
2
-2
5
3
-3
-2
-1
-1
-3
5
4
4
-1
2
-1
5
25
3
-1
5
-18
10
-6
11
0
11
3
2
-2
0
1
-19
-1
0
0
2
2
-2
2
-1
1
0
3
-1
3
-3
-2
-2
-3
0
-1
3
-6
1
2
2
-3
-21
31
0
0
-1
-1
-4
0
1
12
-12
0
-22
1
1
-3
0
2
2
-2
-1
-1
2
-4
-14
11
0
-2
-3
-3
26
1
-8
2
1
-24
-22
-2
2
34
0
13
2
0
6
-2
-2
4
9
3
-15
2
3
22
-4
4
-3
-11
3
-8
1
0
0
3
-8
2
-3
1
1
-3
-4
1
-10
-1
1
-13
-2
0
1
0
-2
-1
4
-3
-8
2
0
1
2
1
-1
7
0
1
-6
4
-2
-4
17
4
0
-2
0
0
2
-1
0
-4
-1
8
2
0
-4
-1
0
-4
-15
-8
0
4
-2
2
6
4
0
0
12
-5
-2
0
0
-2
1
3
4
1
-1
2
-1
-31
3
4
-1
-1
6
-11
-1
21
0
-3
2
0
-11
-4
16
4
7
0
-13
-1
-15
-11
7
2
-1
-8
-5
-2
-6
1
-2
-2
5
1
1
-1
5
2
-9
0
-1
3
0
4
-8
10
-8
3
2
0
-1
-1
-16
16
-7
-3
-9
2
-6
-2
-1
10
-1
-2
-3
8
-3
0
2
1
-2
2
-3
1
5
9
-5
-2
0
-8
-4
-1
0
1
15
-9
-3
-2
2
-2
0
-1
0
1
3
2
-2
0
3
1
2
-1
1
0
1
-2
0
-2
0
1
1
18
1
-3
1
2
7
8
8
1
16
-1
5
-1
9
-10
1
-2
9
0
0
-2
0
1
0
20
-1
2
0
-8
8
-5
-1
0
-9
-14
-1
-1
10
1
-1
13
11
1
-1
-16
1
10
0
3
-8
1
0
6
-6
-1
7
5
0
-2
-10
0
3
5
1
5
-20
-2
11
-38
-7
-1
2
1
-2
-1
0
-1
14
-1
1
-2
-2
24
0
0
1
15
-2
-8
4
-1
-5
0
1
1
2
-11
-2
-1
-9
7
-6
-5
3
-1
1
0
0
-1
-2
4
8
0
-10
-10
0
-3
-2
2
0
0
0
9
0
7
-1
0
3
-1
1
-4
-15
4
13
1
1
-1
-2
-1
-1
-3
-2
0
1
1
-5
-2
-3
-2
-8
1
9
-10
0
-1
-5
0
14
2
-7
0
-12
3
5
0
35
2
-13
1
0
17
2
-7
6
0
0
0
0
-1
0
-1
-7
-1
6
-2
7
-1
-3
0
6
7
3
-1
0
-1
1
1
1
-4
9
1
1
-1
-9
0
1
-1
0
0
1
-7
5
2
-2
-1
-5
-1
-1
-2
-5
-19
-11
3
1
18
-10
2
1
-1
-2
2
0
2
1
-1
11
-2
0
-1
0
-1
3
-1
0
3
-5
2
-7
-3
1
3
2
0
-1
0
-1
13
1
6
-1
1
-30
15
11
0
-39
2
-3
3
22
11
-8
-1
-10
1
0
-7
-3
2
0
3
3
-4
0
12
3
0
4
-5
27
-13
22
1
-29
-2
-1
13
-49
-3
-2
28
-1
19
-3
0
9
-2
-3
-2
4
-5
-29
18
14
14
-1
0
1
-3
2
-3
18
1
21
21
-15
-2
-3
4
2
2
0
-1
3
0
-2
-17
-2
8
3
1
-2
-8
-3
3
-29
0
-5
-2
-1
-1
-3
-7
-1
-2
0
0
-1
6
0
3
-3
4
-1
2
4
-4
-10
2
7
24
1
0
-7
1
-1
-1
-8
2
0
-15
2
0
4
-3
2
2
14
-3
-4
-1
-2
3
0
-2
5
2
-3
-3
1
-33
7
3
2
0
1
-36
-6
16
3
-1
5
3
5
1
-18
-3
0
-4
20
-2
1
2
7
2
0
-19
-23
-1
-10
-1
-9
2
0
16
3
4
25
2
1
0
7
-2
4
3
-10
16
-2
-1
-3
3
-1
-3
-24
-5
-14
-5
11
-2
14
-1
-4
-3
-1
2
-3
28
-1
-1
2
1
-1
3
-3
2
15
-4
1
-4
-2
18
-1
0
-20
-1
34
9
2
2
3
0
-1
4
0
-4
-2
0
0
0
0
0
5
-1
3
3
1
-1
-2
-2
1
1
1
5
1
-44
2
-3
-24
24
11
0
-6
-1
7
-4
34
11
-27
0
-16
2
-2
0
3
-6
-1
9
-3
3
0
-9
15
-17
-1
3
18
2
3
0
-27
2
0
-11
-12
2
0
25
1
4
0
2
-5
-2
4
10
-18
-6
-27
10
-8
5
18
-5
-3
7
-1
0
-33
0
22
-4
-4
4
1
1
-2
-1
-2
0
1
-2
0
-31
1
4
-1
0
3
16
-6
-15
-6
-1
-8
0
0
2
-1
-21
-1
1
-2
22
-12
3
-8
-3
1
-2
0
0
-4
10
-15
-3
-15
-5
-24
-1
-12
1
0
-1
-11
4
-1
-20
-2
-1
3
-9
-1
-5
-4
3
-2
1
0
-2
2
3
-12
-1
1
4
0
3
-18
-2
-2
1
-4
-8
3
-10
-3
1
0
-1
-6
0
-34
2
-8
5
-11
1
37
-5
-20
-3
-3
20
-26
9
37
0
-8
-4
1
2
0
-5
-13
-2
13
-2
6
2
-1
-1
-16
10
0
2
2
-4
2
0
6
-14
17
2
16
3
2
2
1
-10
-2
-4
1
-21
-11
0
0
0
4
-1
0
-3
12
-27
0
-1
1
26
-8
-1
-12
4
15
12
-2
-1
-2
0
-2
-5
-3
2
2
-4
4
5
5
0
-7
0
-6
-3
2
5
-5
2
-2
5
1
-24
-2
0
-6
-1
-5
-19
-27
5
-38
-3
0
-3
3
21
-28
-5
-49
3
-8
5
-9
3
-2
-8
-3
2
-11
1
-2
-12
5
-2
-5
11
-5
-5
-16
-2
-10
-35
-47
0
-6
40
-3
-9
-8
7
2
0
4
4
1
0
-29
-2
-4
-21
-1
-5
5
-6
-5
-9
-16
8
-8
28
11
-1
-3
-1
1
-2
-7
9
-23
-8
7
-16
-5
-42
-5
8
9
-28
1
4
6
-10
7
-3
8
-4
-1
2
0
1
0
5
-6
11
18
1
-6
-4
2
4
0
-1
-5
-2
-3
-12
-5
-6
5
6
-10
10
1
1
-2
-27
2
-3
-2
-9
10
-5
-5
1
-42
1
-2
-1
-1
-9
-11
-11
-1
-2
10
-58
27
-2
2
-9
13
3
-2
-2
-1
-2
3
6
-10
3
20
5
-3
0
-31
1
-25
-2
16
-8
-3
18
17
11
0
7
-4
3
-1
13
2
1
1
-4
1
-10
-4
-4
-5
6
1
-7
3
-4
-3
6
-10
2
-15
-5
7
-6
11
-4
-9
-2
-3
-8
-10
0
-2
-10
-7
5
-8
-7
4
-1
-4
-3
-28
34
11
-1
-6
6
0
5
27
0
11
4
10
2
1
6
-9
-6
-6
2
-2
-2
2
-1
-1
-1
-1
0
3
-2
-3
0
-1
3
0
-1
-3
15
-3
-9
-5
-2
-39
21
3
-5
-3
-1
-1
-2
32
3
0
4
-32
0
1
-2
-2
-5
-1
5
0
0
-5
-3
9
41
4
4
11
-11
48
-1
-51
-1
-3
-16
-51
3
1
31
-2
48
2
-3
0
5
4
0
-5
0
-19
10
8
32
5
0
-1
-3
0
-6
10
5
22
-12
-14
5
-1
1
-2
0
-1
5
1
-2
3
-14
-1
17
-4
0
2
-19
-1
-1
-9
-4
-9
3
4
-6
-1
-7
0
4
10
-1
-1
-1
8
-1
0
-6
1
0
2
2
-14
-3
-2
7
9
3
-22
-1
-2
2
-19
-12
-2
-1
2
2
19
5
-1
1
28
-12
17
2
-2
0
0
-1
6
-1
4
-1
2
-55
-13
-2
2
0
-7
-27
-13
18
-1
2
0
-2
-12
-3
8
3
30
-1
27
-1
0
-8
-3
-5
-1
-24
-9
-2
11
5
-7
-1
0
13
-3
1
19
-2
-4
0
5
1
-4
-2
-7
28
-4
-1
0
1
-4
-1
-24
8
-21
0
15
-1
-9
0
0
4
-1
1
-2
19
-9
2
-4
-2
1
-4
3
-1
38
-19
-8
2
-1
25
-7
-3
-18
0
50
19
0
-1
0
3
-14
-3
-4
-1
1
